<?xml version="1.0"?>
<opencv_storage>
<cascade>
  <stageType>BOOST</stageType>
  <featureType>HAAR</featureType>
  <height>72</height>
  <width>36</width>
  <stageParams>
    <boostType>GAB</boostType>
    <minHitRate>9.9500000476837158e-01</minHitRate>
    <maxFalseAlarm>5.0000000000000000e-01</maxFalseAlarm>
    <weightTrimRate>9.4999998807907104e-01</weightTrimRate>
    <maxDepth>1</maxDepth>
    <maxWeakCount>100</maxWeakCount></stageParams>
  <featureParams>
    <maxCatCount>0</maxCatCount>
    <featSize>1</featSize>
    <mode>BASIC</mode></featureParams>
  <stageNum>9</stageNum>
  <stages>
    <!-- stage 0 -->
    <_>
      <maxWeakCount>3</maxWeakCount>
      <stageThreshold>-1.0155332088470459e+00</stageThreshold>
      <weakClassifiers>
        <_>
          <internalNodes>
            0 -1 21 -3.6907666362822056e-03</internalNodes>
          <leafValues>
            1. -8.8700562715530396e-01</leafValues></_>
        <_>
          <internalNodes>
            0 -1 10 4.5862128026783466e-03</internalNodes>
          <leafValues>
            -8.4691089391708374e-01 8.2134115695953369e-01</leafValues></_>
        <_>
          <internalNodes>
            0 -1 13 5.1884919404983521e-02</internalNodes>
          <leafValues>
            -1. 7.1838337182998657e-01</leafValues></_></weakClassifiers></_>
    <!-- stage 1 -->
    <_>
      <maxWeakCount>2</maxWeakCount>
      <stageThreshold>-7.5663752853870392e-02</stageThreshold>
      <weakClassifiers>
        <_>
          <internalNodes>
            0 -1 4 -6.7233685404062271e-03</internalNodes>
          <leafValues>
            1. -8.8700562715530396e-01</leafValues></_>
        <_>
          <internalNodes>
            0 -1 18 2.2145014372654259e-04</internalNodes>
          <leafValues>
            8.1134188175201416e-01 -9.7661685943603516e-01</leafValues></_></weakClassifiers></_>
    <!-- stage 2 -->
    <_>
      <maxWeakCount>3</maxWeakCount>
      <stageThreshold>-1.0411847829818726e+00</stageThreshold>
      <weakClassifiers>
        <_>
          <internalNodes>
            0 -1 2 6.1355534940958023e-02</internalNodes>
          <leafValues>
            -8.7640452384948730e-01 1.</leafValues></_>
        <_>
          <internalNodes>
            0 -1 9 3.5140342079102993e-03</internalNodes>
          <leafValues>
            -9.0116232633590698e-01 7.4492800235748291e-01</leafValues></_>
        <_>
          <internalNodes>
            0 -1 6 1.2897836975753307e-02</internalNodes>
          <leafValues>
            -8.7631440162658691e-01 7.3638206720352173e-01</leafValues></_></weakClassifiers></_>
    <!-- stage 3 -->
    <_>
      <maxWeakCount>2</maxWeakCount>
      <stageThreshold>-6.0271777212619781e-02</stageThreshold>
      <weakClassifiers>
        <_>
          <internalNodes>
            0 -1 1 -5.9350645542144775e-01</internalNodes>
          <leafValues>
            1. -8.7640452384948730e-01</leafValues></_>
        <_>
          <internalNodes>
            0 -1 0 -7.4361786246299744e-02</internalNodes>
          <leafValues>
            8.1613272428512573e-01 -1.</leafValues></_></weakClassifiers></_>
    <!-- stage 4 -->
    <_>
      <maxWeakCount>2</maxWeakCount>
      <stageThreshold>-3.1967002153396606e-01</stageThreshold>
      <weakClassifiers>
        <_>
          <internalNodes>
            0 -1 20 1.1643036268651485e-02</internalNodes>
          <leafValues>
            -8.7640452384948730e-01 1.</leafValues></_>
        <_>
          <internalNodes>
            0 -1 17 -6.4970657695084810e-04</internalNodes>
          <leafValues>
            -1. 5.5673450231552124e-01</leafValues></_></weakClassifiers></_>
    <!-- stage 5 -->
    <_>
      <maxWeakCount>3</maxWeakCount>
      <stageThreshold>-1.2417747974395752e+00</stageThreshold>
      <weakClassifiers>
        <_>
          <internalNodes>
            0 -1 5 1.7005740106105804e-01</internalNodes>
          <leafValues>
            -8.7640452384948730e-01 1.</leafValues></_>
        <_>
          <internalNodes>
            0 -1 7 5.1089506596326828e-03</internalNodes>
          <leafValues>
            -9.0735375881195068e-01 6.6921013593673706e-01</leafValues></_>
        <_>
          <internalNodes>
            0 -1 3 -6.9483256083913147e-05</internalNodes>
          <leafValues>
            -1. 5.4198348522186279e-01</leafValues></_></weakClassifiers></_>
    <!-- stage 6 -->
    <_>
      <maxWeakCount>3</maxWeakCount>
      <stageThreshold>-1.0489730834960938e+00</stageThreshold>
      <weakClassifiers>
        <_>
          <internalNodes>
            0 -1 22 1.0245835874229670e-03</internalNodes>
          <leafValues>
            -8.8700562715530396e-01 1.</leafValues></_>
        <_>
          <internalNodes>
            0 -1 14 -9.9181241239421070e-05</internalNodes>
          <leafValues>
            6.8131941556930542e-01 -8.9527237415313721e-01</leafValues></_>
        <_>
          <internalNodes>
            0 -1 11 4.9465696793049574e-04</internalNodes>
          <leafValues>
            -8.1202679872512817e-01 7.3330491781234741e-01</leafValues></_></weakClassifiers></_>
    <!-- stage 7 -->
    <_>
      <maxWeakCount>2</maxWeakCount>
      <stageThreshold>-2.4579057097434998e-01</stageThreshold>
      <weakClassifiers>
        <_>
          <internalNodes>
            0 -1 15 3.4343734383583069e-02</internalNodes>
          <leafValues>
            -8.7640452384948730e-01 1.</leafValues></_>
        <_>
          <internalNodes>
            0 -1 12 1.2513812180259265e-05</internalNodes>
          <leafValues>
            -9.4783711433410645e-01 6.3061392307281494e-01</leafValues></_></weakClassifiers></_>
    <!-- stage 8 -->
    <_>
      <maxWeakCount>3</maxWeakCount>
      <stageThreshold>-1.2397799491882324e+00</stageThreshold>
      <weakClassifiers>
        <_>
          <internalNodes>
            0 -1 19 -5.6369982659816742e-02</internalNodes>
          <leafValues>
            1. -8.7640452384948730e-01</leafValues></_>
        <_>
          <internalNodes>
            0 -1 8 -9.0781977633014321e-04</internalNodes>
          <leafValues>
            -9.1742497682571411e-01 6.4375889301300049e-01</leafValues></_>
        <_>
          <internalNodes>
            0 -1 16 7.8508607111871243e-04</internalNodes>
          <leafValues>
            5.5404955148696899e-01 -1.</leafValues></_></weakClassifiers></_></stages>
  <features>
    <_>
      <rects>
        <_>
          0 0 25 32 -1.</_>
        <_>
          0 16 25 16 2.</_></rects>
      <tilted>0</tilted></_>
    <_>
      <rects>
        <_>
          0 0 36 72 -1.</_>
        <_>
          0 36 36 36 2.</_></rects>
      <tilted>0</tilted></_>
    <_>
      <rects>
        <_>
          0 4 30 22 -1.</_>
        <_>
          10 4 10 22 3.</_></rects>
      <tilted>0</tilted></_>
    <_>
      <rects>
        <_>
          0 15 13 4 -1.</_>
        <_>
          0 17 13 2 2.</_></rects>
      <tilted>0</tilted></_>
    <_>
      <rects>
        <_>
          0 65 9 6 -1.</_>
        <_>
          0 68 9 3 2.</_></rects>
      <tilted>0</tilted></_>
    <_>
      <rects>
        <_>
          1 16 20 51 -1.</_>
        <_>
          11 16 10 51 2.</_></rects>
      <tilted>0</tilted></_>
    <_>
      <rects>
        <_>
          6 0 12 63 -1.</_>
        <_>
          10 0 4 63 3.</_></rects>
      <tilted>0</tilted></_>
    <_>
      <rects>
        <_>
          7 63 28 1 -1.</_>
        <_>
          21 63 14 1 2.</_></rects>
      <tilted>0</tilted></_>
    <_>
      <rects>
        <_>
          8 0 1 57 -1.</_>
        <_>
          8 19 1 19 3.</_></rects>
      <tilted>0</tilted></_>
    <_>
      <rects>
        <_>
          10 63 20 1 -1.</_>
        <_>
          20 63 10 1 2.</_></rects>
      <tilted>0</tilted></_>
    <_>
      <rects>
        <_>
          14 67 21 2 -1.</_>
        <_>
          21 67 7 2 3.</_></rects>
      <tilted>0</tilted></_>
    <_>
      <rects>
        <_>
          15 32 6 1 -1.</_>
        <_>
          18 32 3 1 2.</_></rects>
      <tilted>0</tilted></_>
    <_>
      <rects>
        <_>
          16 43 2 1 -1.</_>
        <_>
          17 43 1 1 2.</_></rects>
      <tilted>0</tilted></_>
    <_>
      <rects>
        <_>
          18 11 18 29 -1.</_>
        <_>
          27 11 9 29 2.</_></rects>
      <tilted>0</tilted></_>
    <_>
      <rects>
        <_>
          18 24 2 2 -1.</_>
        <_>
          18 25 2 1 2.</_></rects>
      <tilted>0</tilted></_>
    <_>
      <rects>
        <_>
          24 0 12 9 -1.</_>
        <_>
          30 0 6 9 2.</_></rects>
      <tilted>0</tilted></_>
    <_>
      <rects>
        <_>
          26 45 8 27 -1.</_>
        <_>
          30 45 4 27 2.</_></rects>
      <tilted>0</tilted></_>
    <_>
      <rects>
        <_>
          27 1 4 21 -1.</_>
        <_>
          29 1 2 21 2.</_></rects>
      <tilted>0</tilted></_>
    <_>
      <rects>
        <_>
          27 3 4 29 -1.</_>
        <_>
          29 3 2 29 2.</_></rects>
      <tilted>0</tilted></_>
    <_>
      <rects>
        <_>
          29 0 6 70 -1.</_>
        <_>
          29 0 3 35 2.</_>
        <_>
          32 35 3 35 2.</_></rects>
      <tilted>0</tilted></_>
    <_>
      <rects>
        <_>
          30 0 4 9 -1.</_>
        <_>
          32 0 2 9 2.</_></rects>
      <tilted>0</tilted></_>
    <_>
      <rects>
        <_>
          30 34 6 3 -1.</_>
        <_>
          32 34 2 3 3.</_></rects>
      <tilted>0</tilted></_>
    <_>
      <rects>
        <_>
          34 52 2 2 -1.</_>
        <_>
          35 52 1 2 2.</_></rects>
      <tilted>0</tilted></_></features></cascade>
</opencv_storage>
